{"shape": [4, 6, 5, 3], "init_w": 5, "use_bias": true, "weights": [[[-5.233053213750525, 3.0203471172763203, 3.2198610428072074, 3.4520640540195537], [-5.7555001876027605, -4.0177401289807495, 4.280231293649919, -3.2501654497332644], [-3.932468814235483, -4.019476600097608, 6.226666669475328, -3.412234487610652], [-1.7813758819914904, 3.412617910851736, -4.992276490446963, 0.20326636629659894], [-4.036393957698465, -4.70430355442748, -1.7384098825983592, 3.6283531611838606], [-5.185070151747543, 0.7722061322177218, 1.0509251832232893, 3.6429481782259527]], [[-0.8228455044513552, -2.829826602326363, 3.1766276461186695, 6.098489734612661, 2.393559426993658, -0.7167435562652495], [-6.194295037446285, 0.7345982348633071, 5.358509830893265, -1.7785019299245255, -1.347197010120573, -0.9038358060316446], [-0.49539921285241295, 1.5986586542476953, 1.512972538132439, -3.064571583054862, 6.55829707835061, 4.109488645589802], [-0.5136073979765957, -4.675570769960381, 6.3255633743901685, -1.311133608830644, 0.3929755720674213, -3.601851081456618], [-0.7238231261647631, 1.496090727510557, 2.806052344990036, -1.9329102847600557, 5.876178287737579, 5.241036739296662]], [[-7.658971355475052, 2.6480484056967493, 4.106349525120402, -4.281372160100038, -4.850596224769562], [-3.1839082160931373, -1.393696633894406, -7.517147590990567, -5.476801428296063, 7.351328139862398], [1.2625891674421197, -8.906423117463392, 0.06542114169600104, 6.68321122069286, -3.261037589669474]]], "bias": [[0, 0, 0, 0], [-0.7956622898837475, -1.8841942332824009, 1.1522977803447203, -0.9166942508842029, 1.545409341147864, -0.2741832648829061], [-2.388648469938002, 4.657499150755364, -1.5968506669325242, -3.348779203465532, -8.831623949929563], [0.7883344054207568, 7.199322233026195, 4.418862333066672]], "info": "Train settings: e_max: 0.001, i_max: 1000, gamma: 1.000"}